%YAML:1.0
---
opencv_ml_ann_mlp:
   format: 3
   layer_sizes: [ 32, 24, 3 ]
   activation_function: SIGMOID_SYM
   f_param1: 0.66666666666666663
   f_param2: 1.7159
   min_val: -0.94999999999999996
   max_val: 0.94999999999999996
   min_val1: -0.97999999999999998
   max_val1: 0.97999999999999998
   training_params:
      train_method: RPROP
      dw0: 0.10000000000000001
      dw_plus: 1.2
      dw_minus: 0.5
      dw_min: 1.1920928955078125e-07
      dw_max: 50.
      term_criteria:
         epsilon: 0.01
         iterations: 1000
   input_scale:
      - 18.278881823274578
      - -0.88420582718890739
      - 19.55040288918612
      - -0.6205501161796716
      - 26.316075543659366
      - -1.0703747456308363
      - 33.087956375940387
      - -0.28334249014975682
      - 18.092926850416433
      - -0.5871267481059248
      - 16.13535850038155
      - -0.59915117308042842
      - 23.782841070366519
      - -0.39847198037276149
      - 28.145207875350938
      - -1.031249407521541
      - 16.867155702209153
      - -0.29024651922231809
      - 22.883105787342934
      - -0.49291356530934199
      - 18.670621662794879
      - -0.32193268304061745
      - 20.901195303260238
      - -0.77932461615655058
      - 28.489711838255811
      - -0.6662823294441147
      - 20.777207577810643
      - -0.76635964623123298
      - 20.666767679828705
      - -0.74852996417834206
      - 24.506310212938768
      - -0.34083903374754765
      - 35.598749215918929
      - -0.40526508820043655
      - 19.074918213576112
      - -0.9598930012133603
      - 25.627606665773019
      - -0.42891804614707174
      - 14.327442271833593
      - -0.64163695847820368
      - 22.761877970922601
      - -0.71935874703881375
      - 24.823635889970117
      - -0.93002683336275371
      - 27.516291574844654
      - -0.75112676921250987
      - 17.166239394839856
      - -0.97956779286590523
      - 18.838306653646377
      - -0.72193667438422826
      - 22.788486865955978
      - -0.74157050201633434
      - 16.221524916688246
      - -0.44694047277486559
      - 8.4209057756945676
      - -0.63621150066657706
      - 26.662053799619425
      - -0.91148424158356367
      - 14.908778110237117
      - -0.32875147503730928
      - 17.243846136759942
      - -0.19062075323831015
      - 21.302881099193794
      - -0.55553103818555749
   output_scale:
      - 0.52631578947368418
      - 0.49999999999999994
      - 0.52631578947368418
      - 0.49999999999999994
      - 0.52631578947368418
      - 0.49999999999999994
   inv_output_scale:
      - 1.8999999999999999
      - -0.94999999999999996
      - 1.8999999999999999
      - -0.94999999999999996
      - 1.8999999999999999
      - -0.94999999999999996
   weights:
      -
         - 0.18445184358373962
         - -0.22594284588585348
         - -0.044366602700258544
         - 0.18822039464225482
         - 0.14639593750199265
         - 0.017478564911710126
         - -0.021706458199859766
         - 0.29633499821322173
         - -0.242664432067241
         - 0.010424331142191616
         - 0.12557340061517291
         - 0.040961593050139862
         - -0.081615756414574664
         - 0.016609612108415179
         - 0.13703948134303823
         - 0.13468834738606131
         - 0.13151144467287151
         - 0.019246755182378783
         - 0.045355902299819693
         - 0.0074472313753455085
         - 0.0083403490890203279
         - 0.10341921749609999
         - -0.23898898106367031
         - 0.015040677030832441
         - -0.19042868530112242
         - 0.20786585416495121
         - 0.15647458341261719
         - -0.11385989632939102
         - -0.08870688264261388
         - 0.17237268724842031
         - 0.19181553072359483
         - -0.055727352569849842
         - 0.037306308954214447
         - 0.086269879561184412
         - -0.20675354331642065
         - 0.021705796835389403
         - -0.18106723335000169
         - 0.23605985755595027
         - 0.032689417917736711
         - -0.11460672556602186
         - 0.17261526786784656
         - -0.039590463957118641
         - -0.1882234592996177
         - 0.14142272187236185
         - 0.12498579470113699
         - 0.029075166120581364
         - -0.16955511125521777
         - -0.093163062640640559
         - 0.4572757784721021
         - -0.083926440765336605
         - 0.046112326780159946
         - 0.10369725214412602
         - 0.1010323266266609
         - -0.29801762954658456
         - -0.044087451944900664
         - 0.52478081182122316
         - -0.024811649751471869
         - -0.084588799209929108
         - 0.045545443035626208
         - 0.29841994007231459
         - 0.4096146903647192
         - 0.13163374171429726
         - 0.027215248334257675
         - 0.17565275648532502
         - 0.025888243128468085
         - 0.089325892519917113
         - -0.086987255056624954
         - -0.031383272014922824
         - 0.11024211464971456
         - -0.305300621933701
         - 0.1046216176431719
         - -0.023121757941394632
         - -0.28531489060337084
         - 0.014326430443549171
         - 0.059468064050520311
         - 0.24038781798101833
         - -0.13829666353112374
         - 0.10925534854511612
         - 0.27906514633217155
         - -0.12560160350147787
         - 0.21828183984614094
         - 0.12510595106461175
         - 0.32841310379222483
         - -0.25020085335429088
         - -0.12896045512046153
         - 0.10129901777833564
         - 0.350127589326095
         - -0.0079060119494025055
         - 0.12275918472402127
         - -0.24802416619039078
         - 0.39802379224958578
         - 0.28365301270582993
         - 0.23498194548954202
         - 0.13087168489997433
         - 0.10300198359680787
         - 0.057814293583739663
         - -0.021593568173066777
         - -0.40301006471646905
         - -0.32333878604148647
         - 0.096321906142202401
         - 0.30308259018509109
         - -0.14561887077626778
         - -0.08274137715859578
         - 0.021449672248801337
         - -0.29312874294889835
         - 0.10753070228645428
         - -0.6096334548478376
         - -0.44173863890470411
         - 0.093044323357445599
         - -0.19338297873378371
         - -0.17286533638043797
         - 0.037579521790805287
         - -0.76290951893478731
         - -0.18692090367305339
         - -0.30219880737878002
         - -0.03082157843164518
         - -0.30902254351277203
         - 0.10403188942951061
         - -0.51971980711434618
         - -0.42826753507206239
         - -0.34798846845613102
         - 0.33666664217748082
         - 0.15931826947251049
         - -0.19741488506815039
         - -0.16579615945980294
         - 0.223592396671625
         - 0.049226661338057295
         - -0.30946830469235037
         - 0.21780763820993795
         - -0.044469165488696567
         - -0.055451148768247256
         - -0.35383259196985711
         - 0.10971455017641693
         - -0.020833861021926789
         - 0.011559202841245805
         - -0.4041138568692032
         - 0.30814167602867237
         - 0.00061219650861991221
         - 0.066789208116006929
         - 0.06756362898123304
         - -0.027086590996057376
         - 0.34273916381160885
         - 0.078393882321650121
         - 0.14443557556977266
         - -0.026568726567024598
         - 0.051210438603661493
         - 0.051054567518549678
         - -0.065422097426516085
         - 0.037813105353927748
         - -0.002448962802083959
         - 0.064305259583675847
         - 0.048899041214272812
         - 0.029186436433977954
         - 0.0067823974359384684
         - 0.22082589965186827
         - 0.070677268690759021
         - -0.043752635171384349
         - 0.18330649162667714
         - 0.077057644378800014
         - -0.054236972367298512
         - 0.10269705374861436
         - -0.086680222496276035
         - 0.15538359624116257
         - 0.33217746938117337
         - 0.073923637382479146
         - -0.014103491932644032
         - -0.017656832728984311
         - 0.06229793399775338
         - 0.33084991073566461
         - -0.093204786106339824
         - 0.12627049794141662
         - 0.14116187624115875
         - 0.070939292698930304
         - -0.32775799137649697
         - -0.10429985262034414
         - 0.35370034197291106
         - 0.17382695142913468
         - -0.20101773965310574
         - 0.19751659721303796
         - 0.056598906637025499
         - 0.038190988341489984
         - 0.053940299973397859
         - 0.32029539637306087
         - 0.1748197114698859
         - 0.16129832512762785
         - 0.0061835298115564923
         - 0.12718305595428381
         - 0.0026456777138619911
         - 0.019489068681546266
         - -0.1328421527095226
         - 0.23398367466508213
         - 0.020905701506359425
         - 0.21594809734636952
         - -0.46055407109455188
         - -0.29833021706752155
         - 0.0037269672403509105
         - 0.29406492640754461
         - -0.17580405667807666
         - 0.12414418671328803
         - 0.1973656848328198
         - -0.14010181527424859
         - -0.046812405215920387
         - 0.070908205523739679
         - 0.2952261790524055
         - -0.0028435578196333335
         - -0.070924825991004151
         - -0.29684639357111359
         - 0.14405887082006144
         - 0.20390125713621216
         - -0.12876496326662687
         - 0.070962002523570974
         - 0.094363479920709592
         - -0.037938219125083765
         - -0.22369622635580291
         - 0.0089955730400616586
         - 0.017865779758464283
         - -0.049360679390010972
         - 0.0867844800020693
         - 0.14984008479966765
         - -0.78954202863742473
         - 0.24315145197228197
         - -0.032026148045408653
         - 0.11296931666411794
         - -0.093488554078832636
         - -0.046942972553647662
         - 1.1262287083623042
         - 0.08632936757873326
         - -0.27703457209755933
         - 0.20096015358982808
         - 0.589869055044413
         - -0.067226282494885478
         - -0.11414762465932468
         - 0.11676874305723657
         - 0.10852084911415909
         - -0.089335056512640412
         - 0.32715014669184955
         - 0.17061214867943245
         - 0.025413355015247514
         - -0.29986629086858085
         - 0.10827318613027971
         - -0.043154157808858541
         - -0.15141979454217472
         - 0.1153807435016809
         - -0.18383396865024915
         - -0.13996354820291682
         - 0.22666005527485047
         - 0.14874907239940105
         - -0.082625169163340575
         - 0.023197336489023612
         - 0.20489421615765657
         - -0.051644025132856056
         - -0.13277780747759813
         - -0.085530145844390171
         - 0.16361524188150464
         - -0.066147725094022683
         - -0.091280522134169595
         - -0.089808126137792349
         - -0.11855991802990767
         - 0.13423174722163217
         - 0.20878060069898971
         - 0.59003125050760907
         - 0.18555754596821608
         - -0.17844358579575484
         - -0.1664554308083345
         - -0.029956633596179727
         - -0.20793812824764729
         - -0.068865889743054173
         - 0.0049845572617559075
         - 0.064098942185754793
         - 0.23621573760204434
         - 0.12262006458151867
         - 0.20494659884214492
         - 0.13609346004704947
         - 0.13963424755977161
         - -0.10872044214178832
         - 0.26446524644959707
         - -0.039208405276143977
         - -0.063349136041837187
         - -0.010305020337649632
         - -0.067450190667005694
         - -0.084384654128313558
         - -0.28920408012727794
         - -0.095015404703263223
         - -0.19042152374110521
         - 0.39169764478183194
         - 0.0043955187384725532
         - -0.48594058513567828
         - 0.29311625649811279
         - 0.028569305385701724
         - 0.11990163695046528
         - 0.18971264203036659
         - 0.45041552646136385
         - -0.12173066202439027
         - -0.29304459186159165
         - -0.4684457297474422
         - 0.028669613091778241
         - 0.1745679443833324
         - -0.21966432155195867
         - 0.30858332109373493
         - 0.074409278387628675
         - 0.16624365082251016
         - -0.21838975061875404
         - 0.18882159227817022
         - 0.16141628438662683
         - 0.079229971859591034
         - 0.40380146367674585
         - 0.27075280635367505
         - -0.17097829078247784
         - 0.027588783901521918
         - 0.057490033108380627
         - 0.11878435984811067
         - 0.14193012780987987
         - 0.30369592379678345
         - 0.036273587518944828
         - 0.17615510496231296
         - 0.1663583547162229
         - -0.20454240560011344
         - -0.20148524261885614
         - -0.059129422399140395
         - 0.29723323604076635
         - 0.1159193637875527
         - -0.20370246963563518
         - 0.27101309179212318
         - 0.091912703880485391
         - 0.10656405944377473
         - -0.16172398516874492
         - 0.36847134070381116
         - 0.13609723943254939
         - 0.23398552894184177
         - 0.076498355129184459
         - 0.20046519897591511
         - -0.034605333390581222
         - 0.0088679321070484554
         - -0.44420921088114645
         - -0.037701654363593018
         - 0.034215373014410765
         - 0.4366372415115396
         - 0.056208447641545242
         - -0.017626092443580668
         - 0.18925930743618899
         - -0.049047187153204566
         - -0.12879534499940287
         - 0.042855499921336131
         - 0.24322642991991111
         - 0.047036190945387371
         - 0.20535162405907692
         - 0.028575524343369737
         - 0.12953084768939307
         - -0.12923803869911948
         - -0.01077315948867138
         - 0.096124863447091619
         - 0.15710571239832749
         - 0.0085246594184495376
         - 0.08162046112048002
         - -0.052391021777976859
         - 0.012655655795530902
         - 0.36826591009874349
         - -0.18610406102858951
         - -0.33849948295279619
         - 0.28074341810575831
         - 0.3013599737709261
         - -0.080014097265681122
         - -0.44875325907532854
         - -0.089052808102366238
         - 0.42672683728633681
         - -0.40461903023282958
         - -0.07355441570679247
         - 0.054796961426171159
         - -0.40312911409954372
         - 0.15813423045470246
         - -0.12434469807630857
         - -0.15513103242938819
         - 0.23041752778217869
         - 0.10918309727804006
         - -0.18569637951144427
         - 0.097718928787388179
         - -0.2000925029843644
         - -0.15157177529132251
         - -0.06894640237843469
         - -0.044927372666735015
         - -0.84978258936876572
         - -0.011759387479360277
         - -0.12546652788089271
         - -0.026837430698728768
         - -0.086179212976491712
         - 0.099158398226065578
         - 0.17940464760614089
         - -0.16968566798099891
         - -0.18186118362166093
         - 0.010281685786377052
         - 0.22576602633341045
         - -0.031820590593614854
         - 0.1487679802359935
         - 0.072659538276899568
         - 0.25418725181244689
         - -0.43936947952748778
         - 0.13558241642203786
         - 0.32071377725047662
         - 0.0010226277143763453
         - -0.21376894685115447
         - 0.089110495466099851
         - -0.22435819175055965
         - -0.064254398842219534
         - 0.4582695987899133
         - 0.26834944641296321
         - 0.21072679938519603
         - -0.47700740499571409
         - 0.0038991442671039494
         - 0.078360240340001303
         - -0.094528320634153021
         - -0.17213707570898862
         - -0.1380212865538237
         - 0.16368843002191436
         - -0.16382441072746079
         - 0.27241628965840525
         - 0.3459665019782926
         - -0.093412427263794798
         - -0.049712942831803997
         - -0.20222660404407283
         - -0.067831433818707945
         - 0.12151599412420311
         - 0.0034096641788840514
         - -0.023142623957872095
         - -0.17419766373334233
         - -0.42712757985780836
         - -0.2212412237869622
         - -0.06404846684396609
         - 0.13674263972941447
         - -0.30176582874603697
         - -0.39983652039250672
         - -0.092145323034612509
         - -0.054787766708815355
         - -0.093124824878425411
         - 0.053906983031407965
         - -0.0022134371132957811
         - 0.17276182302514564
         - -0.03667535985253307
         - 0.015319738972239566
         - -0.00037136446381952608
         - 0.074882792205713172
         - -0.00016550375419833768
         - 0.029546264320945911
         - 0.21135528998191241
         - -0.38039440539132946
         - -0.13049516731041114
         - 0.05209892019534787
         - 0.064854324663651167
         - -0.015437577203367919
         - 0.041870795747075973
         - -0.079605341634647747
         - 0.23185494829397973
         - 0.25896202656889911
         - 0.077053826044948592
         - 0.11980396342769886
         - 0.11304128667224833
         - 0.067388184663132455
         - 0.18325889767107428
         - -0.086015661067702531
         - -0.10478083261133027
         - -0.12675767191140674
         - 0.056428979817122998
         - -0.10441258915574214
         - 0.21842175648883885
         - -0.0048498512244602625
         - -0.14197107139783499
         - 0.12538618103664728
         - 0.016504443274287933
         - -0.025552928359167251
         - 0.16193710859315649
         - 0.11602137580295455
         - -0.22152312959066489
         - -0.2919313194813235
         - -0.49115448930212885
         - -0.20982161890261414
         - 0.095625865315042358
         - -0.074893672716609877
         - -0.73495097135083487
         - -0.066736474222614389
         - -0.19385388739159712
         - -0.074171199044038363
         - 0.37828086004829414
         - 0.064125825311568796
         - 0.21381555224279969
         - 0.20350368273905092
         - -0.17115750550882336
         - -0.1827404340680007
         - -0.0043613009003212935
         - 0.28981040931786123
         - 0.012089672830031546
         - -0.20629171382288461
         - 0.10625787360077933
         - 0.036857156717824406
         - 0.1211077762567927
         - -0.12379298396303404
         - 0.33462854359984556
         - 0.11826413582212504
         - 0.036667157783961755
         - 0.0025459456242159072
         - 0.18278775374010234
         - -0.15965746581099577
         - -0.023832019637851445
         - -0.55031716628782246
         - -0.15613709465415462
         - 0.16839961841408405
         - 0.15334294806028034
         - -0.46530929586486508
         - -0.10578773919179042
         - -0.20929621358960362
         - 0.14575261506440693
         - -0.48955121624642822
         - -0.49117617544747327
         - 0.1790730613691329
         - -0.10580662367127415
         - 0.0066516203297920466
         - -0.36891340927295979
         - -0.0059204076016038387
         - 0.06313827319092806
         - 0.045588424969292857
         - -0.38348217884049196
         - 0.0066555556378219095
         - -0.13564635942114034
         - -0.013406964177673146
         - -0.40749231466096358
         - -0.010862273820238803
         - 0.043238385672620186
         - -0.099359842546723059
         - 0.16347547216881525
         - -0.0085406265550280747
         - -0.019702451724898061
         - -0.0053848004009014478
         - 0.17159437818758019
         - -0.16969907198829792
         - -0.13975157266440694
         - 0.24643299720747602
         - -0.10241517094214701
         - 0.045599746879895597
         - 0.19957572439578103
         - 0.014231964402481366
         - -0.015324170170030333
         - -0.070366746218622545
         - 0.47254229865973674
         - -0.11229450843774441
         - -0.047874210260321695
         - -0.080480606362681686
         - 0.42649717597658532
         - 0.17331948442663472
         - 0.076578073982225936
         - 0.33879113153736529
         - 0.25252796329205263
         - 0.032319622925948518
         - 0.17832179258191225
         - -0.13774586829303742
         - -0.045454408071729423
         - -0.33426357781013866
         - -0.11413851629155293
         - 0.11503238494445872
         - 0.093303737665268296
         - 0.04880906387801183
         - -0.076079935192597314
         - -0.20609790291715038
         - -0.23565040724882264
         - -0.14810781927492483
         - -0.058793843486548827
         - 0.1073254170932767
         - -0.057454348504828529
         - 0.034618516562598976
         - -0.11129593779542807
         - 0.12054126277877247
         - -0.63917162711589359
         - -0.10133825326188989
         - -0.090803660949115642
         - -0.045283549931194711
         - 0.14805040243116438
         - 0.51073378131145797
         - -0.092065581646705127
         - -0.31515865621451672
         - -0.1358106506619122
         - 0.23621513167186664
         - 0.068327169841499044
         - 0.0019860260959522697
         - -0.23388995689084105
         - 0.37767771691721097
         - -0.0012244141311037555
         - -0.15744161682085009
         - 0.13582856305486696
         - -0.067038314339623886
         - 0.63445512497545176
         - -0.077361038630932286
         - 0.057769806925361336
         - -0.0028036094594259512
         - 0.23161815598182645
         - -0.61459425027531356
         - 0.18956866262359953
         - 0.06317374281917966
         - 0.02761461256878146
         - 0.16680280405076486
         - -0.13721018455663547
         - 0.49739727163127001
         - 0.24088855463625838
         - -0.12111950855608521
         - -0.3827430479143919
         - 0.59014700986833568
         - 0.23148842091063943
         - -0.052690709534767177
         - -0.28603623718198506
         - -0.043812416987019008
         - 0.21932961080501995
         - -0.52955874626652155
         - 0.25294663638084497
         - 0.049209189418213284
         - 0.04397099109629754
         - 0.042648526466607634
         - -0.11554806090103167
         - 0.044057554889159328
         - -0.033932271250546785
         - -0.34733870029777181
         - 0.20045544991651168
         - -0.15025915509075496
         - 0.15530441633706973
         - 0.18220522410736328
         - 0.26338787622102072
         - 2.9189339747538909
         - -0.15795754412254159
         - -0.17959432586156862
         - -0.28013722695677917
         - -0.094532605821542409
         - -0.072323188686773704
         - 0.049011512615777027
         - 0.068852952177627519
         - -0.0016116431528941412
         - 0.097769707891783159
         - -0.19737382751737109
         - -0.077021498928136339
         - 0.12378643682109058
         - -0.040631452700150207
         - -0.22261527934265302
         - 0.066266973040699229
         - 0.084798437936617288
         - 0.17496400610791901
         - -0.13220080661212913
         - -0.11687276714117403
         - -0.054265234499725451
         - 0.16794014096124735
         - 0.061304177177093432
         - 0.040726661236311787
         - 0.025090849200509767
         - -0.097227392483893157
         - -0.10923203536448103
         - 0.26697433696460049
         - -0.040493631268012323
         - -0.54127001593469914
         - -0.082903452185828161
         - 0.19275200127999834
         - -0.48308866068100342
         - -0.12492572400254229
         - 0.083681802343202161
         - -0.29653816827071988
         - -0.023963355897226292
         - -0.27464392472285237
         - -0.061107595587007173
         - 0.13240667343053913
         - 0.098891971650715588
         - -0.085080733579263337
         - -0.15650287429023205
         - 0.051032971234774585
         - 0.019719241810144984
         - -0.047623554189916525
         - 0.12828041254557784
         - -0.82475715682050432
         - -0.097385114751872601
         - -0.27113290310616051
         - -0.15139531363556125
         - 0.46614064235977071
         - 0.00083167078998401468
         - 0.14445236749858203
         - 0.15083612012438438
         - -0.20253819680706747
         - -0.045365103656395039
         - -0.3320756174951604
         - 0.13016605709417978
         - 0.24135015822850928
         - -0.20459007970946944
         - 0.15041170283896971
         - -0.0080951677841004325
         - -0.023122678652946524
         - -0.18751687552695984
         - 0.22790058528010693
         - 0.085658520706543853
         - -0.034737281547492609
         - 0.048962721753718901
         - 0.12787145926555338
         - 0.0010124533983468917
         - -0.039824011315606117
         - -0.08961088249756749
         - 0.046807269305318956
         - 0.0302721281981157
         - 0.14204385217967436
         - -0.20435854849322377
         - -0.17141365413853538
         - 0.031947719173284456
         - 0.18872513318988771
         - 0.12435245871711048
         - -0.1296397880429212
         - 0.23277712697391212
         - -0.12179135703652724
         - 0.0033732910304462276
         - -0.076013455521927356
         - -0.13020122257202055
         - 0.15407325822493509
         - -0.057115036820005127
         - 0.25701542613522038
         - 0.12011700431156468
         - 0.011317478657086539
         - -0.10450164129389937
         - -0.028968696484667451
         - 0.13762365118114256
         - -0.10476272222908622
         - -0.14970815985792779
         - 0.14689630348803789
         - -0.22685502065428509
         - -0.055632916093234994
         - 0.18699587956885336
         - 0.11590490707561704
         - -0.56494171132209137
         - -0.067735109386568265
         - 2.35628473337762
         - 0.23548059305310093
         - -0.12855968734713821
         - 0.046881574766084733
         - 3.0269903971524714
         - 0.15580300067037689
         - 0.048374284303499243
         - -0.026995575486738452
         - 0.1286928393759468
         - -0.05591699003531439
         - 0.013221963745089327
         - 0.16032801934133653
         - -1.1028335946257806
         - -0.15516651135693874
         - 0.12781703642830725
         - 5.435127386866605
         - 0.031709805064175242
         - -0.049638433611132536
         - -0.1024135683383591
         - 0.016196028886981496
         - 0.36164300754809664
         - 0.22581129410622758
         - -0.17418385816462606
         - -0.068319266628019834
         - 0.40851161221396709
         - 0.28358908908450725
         - -0.023236151869683083
         - 0.2494620463851098
         - -0.032423630795100709
         - -0.064112082560641478
         - -0.28130137434019137
         - -0.17443077080303085
         - -0.014767679684903834
         - -0.049715689657843655
         - -0.17422109148354473
         - 0.24777323109591454
         - 0.072490850729140743
         - -0.18866912758237947
         - 0.038276785970998033
         - 0.23214880777974442
         - 0.077430908831763512
         - -0.045597758787576562
         - -0.35128245387404933
         - -0.14394543234604829
         - 0.12313548544160838
         - -0.16057338476851205
         - -0.017346692712271822
         - 0.05289378251054859
         - 0.41654379482952231
         - -0.017775525934218363
         - -0.14072962900062755
         - -0.1739113881248989
         - 0.070639802150526967
         - -0.33753985479453275
         - 0.30593128897857919
         - -0.083331999999999976
         - 0.061070429726933231
         - -0.42747337620970466
         - 0.37778427557736416
         - 0.49585639831616057
         - -0.1017916284499373
         - -0.39447066784526691
         - -0.088938285812952697
         - 0.18160348255848846
         - 0.090923748556007281
         - 0.10190362963461028
         - 0.50310150474796389
      -
         - 0.16600889122888951
         - 0.49785230896395566
         - 0.17547577545898987
         - -0.35492259518313618
         - -0.69516641848798322
         - -0.11950844608588196
         - 0.93536392244288014
         - -0.70555087655612558
         - 0.31027528248534331
         - 0.72163822529495947
         - -0.89021119612168131
         - -0.4330322738085271
         - -0.37080423559120296
         - 0.29067534303136944
         - -0.079673495735812533
         - -0.7133458553098796
         - -0.89632541571441271
         - 0.28101942707719524
         - 0.010112073075047913
         - 0.17857217148583371
         - 0.61112861818090258
         - 0.026231811679896935
         - 0.4847645512435334
         - 9.4981182493645904e-05
         - 0.3843888725009873
         - -0.46797390464365801
         - 0.3910541091695473
         - -0.63085779435712352
         - 0.2889511194046222
         - 0.33117097544588053
         - 0.54912274636406033
         - -0.3590243197820035
         - -0.46891007762958375
         - -0.43759297377857548
         - -0.44574154733604082
         - 0.13659740093978509
         - 0.18271963691598808
         - -0.19059640597698049
         - -0.74773724276684583
         - -0.35562601367479257
         - 0.21900196647944031
         - -0.1980635707340565
         - 0.66050179525599395
         - 0.58946670456652761
         - -0.0094694468146030095
         - -0.45704956985084078
         - -0.41232343672874772
         - -0.5797589878456838
         - -0.26693830939679919
         - 0.40828489228168602
         - -0.47905694518199676
         - 0.015022077252019496
         - 0.26118631103260165
         - -0.24905428893899045
         - 0.69101247164766266
         - -0.26709059603196822
         - -0.50874891523382371
         - 0.21518650209709947
         - 0.60838356795957327
         - -0.1176945872229799
         - -0.60894670687538321
         - -0.019911914961527659
         - 0.77493119018092893
         - 0.17870155087626644
         - -0.26207131191007166
         - 0.013910338321217965
         - 0.11976871838271372
         - 0.067284937915751214
         - -0.17119961415305754
         - -0.54904913800339894
         - -0.6850750434688081
         - 0.75873459017214251
         - 0.02965483081516683
         - -0.48186400847150629
         - -0.79454761500651394
